<?xml version="1.0"?>
<opencv_storage>
<cascade>
  <stageType>BOOST</stageType>
  <featureType>HAAR</featureType>
  <height>60</height>
  <width>40</width>
  <stageParams>
    <boostType>GAB</boostType>
    <minHitRate>9.9500000476837158e-001</minHitRate>
    <maxFalseAlarm>5.0000000000000000e-001</maxFalseAlarm>
    <weightTrimRate>9.4999999999999996e-001</weightTrimRate>
    <maxDepth>1</maxDepth>
    <maxWeakCount>100</maxWeakCount></stageParams>
  <featureParams>
    <maxCatCount>0</maxCatCount>
    <featSize>1</featSize>
    <mode>BASIC</mode></featureParams>
  <stageNum>20</stageNum>
  <stages>
    <!-- stage 0 -->
    <_>
      <maxWeakCount>5</maxWeakCount>
      <stageThreshold>-1.5400171279907227e+000</stageThreshold>
      <weakClassifiers>
        <_>
          <internalNodes>
            0 -1 80 -4.3767683207988739e-002</internalNodes>
          <leafValues>
            5.5714285373687744e-001 -8.6813187599182129e-001</leafValues></_>
        <_>
          <internalNodes>
            0 -1 18 -2.1142441779375076e-002</internalNodes>
          <leafValues>
            5.9492069482803345e-001 -5.6727987527847290e-001</leafValues></_>
        <_>
          <internalNodes>
            0 -1 55 3.4987084567546844e-002</internalNodes>
          <leafValues>
            -4.1990596055984497e-001 7.9168158769607544e-001</leafValues></_>
        <_>
          <internalNodes>
            0 -1 35 -3.4521393477916718e-002</internalNodes>
          <leafValues>
            7.0620703697204590e-001 -3.5706958174705505e-001</leafValues></_>
        <_>
          <internalNodes>
            0 -1 82 1.6194036230444908e-002</internalNodes>
          <leafValues>
            -3.5280838608741760e-001 6.7237025499343872e-001</leafValues></_></weakClassifiers></_>
    <!-- stage 1 -->
    <_>
      <maxWeakCount>6</maxWeakCount>
      <stageThreshold>-8.0119824409484863e-001</stageThreshold>
      <weakClassifiers>
        <_>
          <internalNodes>
            0 -1 8 -4.5988678932189941e-002</internalNodes>
          <leafValues>
            3.8596490025520325e-001 -7.2307693958282471e-001</leafValues></_>
        <_>
          <internalNodes>
            0 -1 122 1.9831172539852560e-004</internalNodes>
          <leafValues>
            -4.0029701590538025e-001 7.4045056104660034e-001</leafValues></_>
        <_>
          <internalNodes>
            0 -1 74 5.8655433356761932e-002</internalNodes>
          <leafValues>
            -3.9640820026397705e-001 6.8393516540527344e-001</leafValues></_>
        <_>
          <internalNodes>
            0 -1 75 2.6469386648386717e-004</internalNodes>
          <leafValues>
            -3.7125062942504883e-001 7.0897251367568970e-001</leafValues></_>
        <_>
          <internalNodes>
            0 -1 6 9.3720114091411233e-004</internalNodes>
          <leafValues>
            -5.4028129577636719e-001 4.3118631839752197e-001</leafValues></_>
        <_>
          <internalNodes>
            0 -1 102 1.8464785534888506e-004</internalNodes>
          <leafValues>
            -3.4410181641578674e-001 6.5864819288253784e-001</leafValues></_></weakClassifiers></_>
    <!-- stage 2 -->
    <_>
      <maxWeakCount>6</maxWeakCount>
      <stageThreshold>-9.1695570945739746e-001</stageThreshold>
      <weakClassifiers>
        <_>
          <internalNodes>
            0 -1 30 1.6851550340652466e-001</internalNodes>
          <leafValues>
            -6.3764703273773193e-001 4.1772150993347168e-001</leafValues></_>
        <_>
          <internalNodes>
            0 -1 95 -2.3386336863040924e-002</internalNodes>
          <leafValues>
            2.8032347559928894e-001 -6.5621572732925415e-001</leafValues></_>
        <_>
          <internalNodes>
            0 -1 16 5.0700474530458450e-003</internalNodes>
          <leafValues>
            -6.1969721317291260e-001 3.4212800860404968e-001</leafValues></_>
        <_>
          <internalNodes>
            0 -1 97 1.1105188168585300e-003</internalNodes>
          <leafValues>
            -3.6891943216323853e-001 5.4902338981628418e-001</leafValues></_>
        <_>
          <internalNodes>
            0 -1 19 -3.7131650606170297e-004</internalNodes>
          <leafValues>
            6.9383507966995239e-001 -2.8010350465774536e-001</leafValues></_>
        <_>
          <internalNodes>
            0 -1 38 -2.1641710191033781e-004</internalNodes>
          <leafValues>
            7.2061061859130859e-001 -2.0885480940341949e-001</leafValues></_></weakClassifiers></_>
    <!-- stage 3 -->
    <_>
      <maxWeakCount>7</maxWeakCount>
      <stageThreshold>-1.4406216144561768e+000</stageThreshold>
      <weakClassifiers>
        <_>
          <internalNodes>
            0 -1 27 4.6896707499399781e-004</internalNodes>
          <leafValues>
            -6.5550237894058228e-001 4.1860464215278625e-001</leafValues></_>
        <_>
          <internalNodes>
            0 -1 47 2.6521238032728434e-004</internalNodes>
          <leafValues>
            -3.6811104416847229e-001 6.3936913013458252e-001</leafValues></_>
        <_>
          <internalNodes>
            0 -1 54 1.2065522372722626e-002</internalNodes>
          <leafValues>
            2.1706128120422363e-001 -8.4636139869689941e-001</leafValues></_>
        <_>
          <internalNodes>
            0 -1 1 3.7041202187538147e-002</internalNodes>
          <leafValues>
            -5.6909793615341187e-001 3.0826798081398010e-001</leafValues></_>
        <_>
          <internalNodes>
            0 -1 83 -1.3569220027420670e-004</internalNodes>
          <leafValues>
            6.3679480552673340e-001 -3.0270680785179138e-001</leafValues></_>
        <_>
          <internalNodes>
            0 -1 72 7.4519293775665574e-006</internalNodes>
          <leafValues>
            -3.5608312487602234e-001 4.9654886126518250e-001</leafValues></_>
        <_>
          <internalNodes>
            0 -1 133 4.6354785445146263e-004</internalNodes>
          <leafValues>
            -2.5881361961364746e-001 6.9306904077529907e-001</leafValues></_></weakClassifiers></_>
    <!-- stage 4 -->
    <_>
      <maxWeakCount>6</maxWeakCount>
      <stageThreshold>-9.4697451591491699e-001</stageThreshold>
      <weakClassifiers>
        <_>
          <internalNodes>
            0 -1 52 3.6004843423143029e-004</internalNodes>
          <leafValues>
            -5.7327586412429810e-001 6.9999998807907104e-001</leafValues></_>
        <_>
          <internalNodes>
            0 -1 144 1.3200561807025224e-004</internalNodes>
          <leafValues>
            -4.5814776420593262e-001 3.8235291838645935e-001</leafValues></_>
        <_>
          <internalNodes>
            0 -1 49 4.2094290256500244e-002</internalNodes>
          <leafValues>
            -2.8793933987617493e-001 4.8821085691452026e-001</leafValues></_>
        <_>
          <internalNodes>
            0 -1 104 3.9434766222257167e-005</internalNodes>
          <leafValues>
            -2.7626961469650269e-001 5.5855846405029297e-001</leafValues></_>
        <_>
          <internalNodes>
            0 -1 146 1.8331746105104685e-004</internalNodes>
          <leafValues>
            3.0419981479644775e-001 -5.7049095630645752e-001</leafValues></_>
        <_>
          <internalNodes>
            0 -1 109 4.1030743886949494e-005</internalNodes>
          <leafValues>
            -3.9182919263839722e-001 4.8395630717277527e-001</leafValues></_></weakClassifiers></_>
    <!-- stage 5 -->
    <_>
      <maxWeakCount>9</maxWeakCount>
      <stageThreshold>-1.3955202102661133e+000</stageThreshold>
      <weakClassifiers>
        <_>
          <internalNodes>
            0 -1 15 2.4030399508774281e-003</internalNodes>
          <leafValues>
            -6.2291169166564941e-001 2.7058824896812439e-001</leafValues></_>
        <_>
          <internalNodes>
            0 -1 110 -5.3079541772603989e-002</internalNodes>
          <leafValues>
            3.9625376462936401e-001 -3.9279860258102417e-001</leafValues></_>
        <_>
          <internalNodes>
            0 -1 9 1.4163287356495857e-002</internalNodes>
          <leafValues>
            -3.9244887232780457e-001 4.4142529368400574e-001</leafValues></_>
        <_>
          <internalNodes>
            0 -1 88 1.8200144171714783e-002</internalNodes>
          <leafValues>
            1.6266205906867981e-001 -9.8620015382766724e-001</leafValues></_>
        <_>
          <internalNodes>
            0 -1 100 1.2067493662470952e-004</internalNodes>
          <leafValues>
            -3.1502339243888855e-001 4.7732442617416382e-001</leafValues></_>
        <_>
          <internalNodes>
            0 -1 33 6.5025669755414128e-004</internalNodes>
          <leafValues>
            -2.7681162953376770e-001 5.7186269760131836e-001</leafValues></_>
        <_>
          <internalNodes>
            0 -1 37 -2.6359723415225744e-004</internalNodes>
          <leafValues>
            7.0978379249572754e-001 -2.2931255400180817e-001</leafValues></_>
        <_>
          <internalNodes>
            0 -1 116 9.4389878213405609e-003</internalNodes>
          <leafValues>
            -3.3053371310234070e-001 5.0736993551254272e-001</leafValues></_>
        <_>
          <internalNodes>
            0 -1 12 -1.7059401143342257e-003</internalNodes>
          <leafValues>
            -8.7717086076736450e-001 2.0931038260459900e-001</leafValues></_></weakClassifiers></_>
    <!-- stage 6 -->
    <_>
      <maxWeakCount>8</maxWeakCount>
      <stageThreshold>-8.5322159528732300e-001</stageThreshold>
      <weakClassifiers>
        <_>
          <internalNodes>
            0 -1 124 -1.9109144806861877e-002</internalNodes>
          <leafValues>
            1.5702480077743530e-001 -6.7101830244064331e-001</leafValues></_>
        <_>
          <internalNodes>
            0 -1 11 -1.7668269574642181e-002</internalNodes>
          <leafValues>
            6.7341727018356323e-001 -3.2972002029418945e-001</leafValues></_>
        <_>
          <internalNodes>
            0 -1 56 -1.0059951990842819e-001</internalNodes>
          <leafValues>
            4.7591182589530945e-001 -4.2773938179016113e-001</leafValues></_>
        <_>
          <internalNodes>
            0 -1 120 2.0860114600509405e-003</internalNodes>
          <leafValues>
            -3.4901672601699829e-001 5.0529748201370239e-001</leafValues></_>
        <_>
          <internalNodes>
            0 -1 20 9.4816638156771660e-003</internalNodes>
          <leafValues>
            -2.7717208862304688e-001 6.4870846271514893e-001</leafValues></_>
        <_>
          <internalNodes>
            0 -1 137 -5.8605172671377659e-004</internalNodes>
          <leafValues>
            -8.5089552402496338e-001 1.9952164590358734e-001</leafValues></_>
        <_>
          <internalNodes>
            0 -1 64 8.8783130049705505e-002</internalNodes>
          <leafValues>
            -2.7044799923896790e-001 6.6810971498489380e-001</leafValues></_>
        <_>
          <internalNodes>
            0 -1 10 1.5062958002090454e-002</internalNodes>
          <leafValues>
            -3.0299642682075500e-001 6.4043110609054565e-001</leafValues></_></weakClassifiers></_>
    <!-- stage 7 -->
    <_>
      <maxWeakCount>8</maxWeakCount>
      <stageThreshold>-8.7251788377761841e-001</stageThreshold>
      <weakClassifiers>
        <_>
          <internalNodes>
            0 -1 79 3.8234009407460690e-003</internalNodes>
          <leafValues>
            -5.7667386531829834e-001 7.0731705427169800e-001</leafValues></_>
        <_>
          <internalNodes>
            0 -1 61 -7.8576849773526192e-003</internalNodes>
          <leafValues>
            4.1105613112449646e-001 -4.5514845848083496e-001</leafValues></_>
        <_>
          <internalNodes>
            0 -1 130 3.8241152651607990e-004</internalNodes>
          <leafValues>
            2.2792400419712067e-001 -8.6790955066680908e-001</leafValues></_>
        <_>
          <internalNodes>
            0 -1 119 -4.6489024534821510e-003</internalNodes>
          <leafValues>
            2.8695407509803772e-001 -5.7923012971878052e-001</leafValues></_>
        <_>
          <internalNodes>
            0 -1 58 1.3716809451580048e-002</internalNodes>
          <leafValues>
            -2.2839920222759247e-001 8.3318805694580078e-001</leafValues></_>
        <_>
          <internalNodes>
            0 -1 59 -1.6906110569834709e-002</internalNodes>
          <leafValues>
            5.2805310487747192e-001 -3.5192826390266418e-001</leafValues></_>
        <_>
          <internalNodes>
            0 -1 76 1.7698376905173063e-004</internalNodes>
          <leafValues>
            -3.2945132255554199e-001 5.3019553422927856e-001</leafValues></_>
        <_>
          <internalNodes>
            0 -1 96 6.9679541047662497e-004</internalNodes>
          <leafValues>
            -3.0546209216117859e-001 6.0271382331848145e-001</leafValues></_></weakClassifiers></_>
    <!-- stage 8 -->
    <_>
      <maxWeakCount>10</maxWeakCount>
      <stageThreshold>-9.2006462812423706e-001</stageThreshold>
      <weakClassifiers>
        <_>
          <internalNodes>
            0 -1 24 9.8837830591946840e-004</internalNodes>
          <leafValues>
            -5.9817349910736084e-001 3.6363637447357178e-001</leafValues></_>
        <_>
          <internalNodes>
            0 -1 3 1.5031617134809494e-002</internalNodes>
          <leafValues>
            -3.9411062002182007e-001 3.7760832905769348e-001</leafValues></_>
        <_>
          <internalNodes>
            0 -1 43 -6.4820668194442987e-004</internalNodes>
          <leafValues>
            7.6920306682586670e-001 -1.8041610717773438e-001</leafValues></_>
        <_>
          <internalNodes>
            0 -1 41 -6.5137294586747885e-004</internalNodes>
          <leafValues>
            -7.1159398555755615e-001 2.3695950210094452e-001</leafValues></_>
        <_>
          <internalNodes>
            0 -1 45 1.6672637313604355e-002</internalNodes>
          <leafValues>
            -2.4787393212318420e-001 5.8375394344329834e-001</leafValues></_>
        <_>
          <internalNodes>
            0 -1 99 1.7509628087282181e-002</internalNodes>
          <leafValues>
            -2.5602784752845764e-001 6.2912374734878540e-001</leafValues></_>
        <_>
          <internalNodes>
            0 -1 118 -1.2394279474392533e-004</internalNodes>
          <leafValues>
            7.0903849601745605e-001 -1.4426802098751068e-001</leafValues></_>
        <_>
          <internalNodes>
            0 -1 42 4.2531125247478485e-002</internalNodes>
          <leafValues>
            -2.8740146756172180e-001 5.0026762485504150e-001</leafValues></_>
        <_>
          <internalNodes>
            0 -1 32 3.3571870881132782e-004</internalNodes>
          <leafValues>
            -2.3845151066780090e-001 6.7911571264266968e-001</leafValues></_>
        <_>
          <internalNodes>
            0 -1 93 2.6393355801701546e-004</internalNodes>
          <leafValues>
            -3.0628725886344910e-001 5.4745745658874512e-001</leafValues></_></weakClassifiers></_>
    <!-- stage 9 -->
    <_>
      <maxWeakCount>8</maxWeakCount>
      <stageThreshold>-1.1533520221710205e+000</stageThreshold>
      <weakClassifiers>
        <_>
          <internalNodes>
            0 -1 73 3.3391732722520828e-002</internalNodes>
          <leafValues>
            -5.5838638544082642e-001 7.5757575035095215e-001</leafValues></_>
        <_>
          <internalNodes>
            0 -1 87 -8.9422304881736636e-005</internalNodes>
          <leafValues>
            2.6931166648864746e-001 -6.3015830516815186e-001</leafValues></_>
        <_>
          <internalNodes>
            0 -1 106 -1.0328287258744240e-002</internalNodes>
          <leafValues>
            3.9484935998916626e-001 -4.3226903676986694e-001</leafValues></_>
        <_>
          <internalNodes>
            0 -1 2 -7.6866015791893005e-002</internalNodes>
          <leafValues>
            -6.6136431694030762e-001 2.1912340819835663e-001</leafValues></_>
        <_>
          <internalNodes>
            0 -1 50 -3.6778479814529419e-002</internalNodes>
          <leafValues>
            4.7513654828071594e-001 -3.1374698877334595e-001</leafValues></_>
        <_>
          <internalNodes>
            0 -1 91 3.6699883639812469e-004</internalNodes>
          <leafValues>
            -3.0609390139579773e-001 4.9207502603530884e-001</leafValues></_>
        <_>
          <internalNodes>
            0 -1 141 3.6023302527610213e-005</internalNodes>
          <leafValues>
            3.2340663671493530e-001 -4.8324581980705261e-001</leafValues></_>
        <_>
          <internalNodes>
            0 -1 31 7.2277307510375977e-002</internalNodes>
          <leafValues>
            -2.6309317350387573e-001 6.1578309535980225e-001</leafValues></_></weakClassifiers></_>
    <!-- stage 10 -->
    <_>
      <maxWeakCount>7</maxWeakCount>
      <stageThreshold>-9.6539002656936646e-001</stageThreshold>
      <weakClassifiers>
        <_>
          <internalNodes>
            0 -1 70 3.8388028740882874e-002</internalNodes>
          <leafValues>
            -5.4297691583633423e-001 7.7777779102325439e-001</leafValues></_>
        <_>
          <internalNodes>
            0 -1 98 -5.7762102223932743e-003</internalNodes>
          <leafValues>
            2.4348317086696625e-001 -6.0291290283203125e-001</leafValues></_>
        <_>
          <internalNodes>
            0 -1 13 -7.6662938226945698e-005</internalNodes>
          <leafValues>
            -7.4641376733779907e-001 1.9798201322555542e-001</leafValues></_>
        <_>
          <internalNodes>
            0 -1 145 8.3653976616915315e-005</internalNodes>
          <leafValues>
            3.1898334622383118e-001 -4.5324298739433289e-001</leafValues></_>
        <_>
          <internalNodes>
            0 -1 139 3.7202746607363224e-003</internalNodes>
          <leafValues>
            -3.4350124001502991e-001 4.2163175344467163e-001</leafValues></_>
        <_>
          <internalNodes>
            0 -1 140 1.1983908480033278e-003</internalNodes>
          <leafValues>
            -3.1233733892440796e-001 4.2510619759559631e-001</leafValues></_>
        <_>
          <internalNodes>
            0 -1 126 -3.1715939985588193e-004</internalNodes>
          <leafValues>
            3.3548116683959961e-001 -4.1807046532630920e-001</leafValues></_></weakClassifiers></_>
    <!-- stage 11 -->
    <_>
      <maxWeakCount>9</maxWeakCount>
      <stageThreshold>-1.4015325307846069e+000</stageThreshold>
      <weakClassifiers>
        <_>
          <internalNodes>
            0 -1 60 -1.5090301632881165e-002</internalNodes>
          <leafValues>
            4.2307692766189575e-001 -5.7522124052047729e-001</leafValues></_>
        <_>
          <internalNodes>
            0 -1 78 -7.7867525760666467e-006</internalNodes>
          <leafValues>
            3.1738176941871643e-001 -3.7781301140785217e-001</leafValues></_>
        <_>
          <internalNodes>
            0 -1 86 -2.4060041178017855e-003</internalNodes>
          <leafValues>
            5.1697117090225220e-001 -2.5172466039657593e-001</leafValues></_>
        <_>
          <internalNodes>
            0 -1 4 -3.5189442336559296e-002</internalNodes>
          <leafValues>
            3.8262251019477844e-001 -4.1898557543754578e-001</leafValues></_>
        <_>
          <internalNodes>
            0 -1 131 -3.8431663997471333e-003</internalNodes>
          <leafValues>
            -9.1511636972427368e-001 1.6390940546989441e-001</leafValues></_>
        <_>
          <internalNodes>
            0 -1 117 -2.3120705038309097e-002</internalNodes>
          <leafValues>
            4.9200928211212158e-001 -2.9722040891647339e-001</leafValues></_>
        <_>
          <internalNodes>
            0 -1 36 3.1358798150904477e-004</internalNodes>
          <leafValues>
            -2.9351502656936646e-001 5.1001250743865967e-001</leafValues></_>
        <_>
          <internalNodes>
            0 -1 77 -1.3104742392897606e-003</internalNodes>
          <leafValues>
            -9.3381190299987793e-001 1.9415272772312164e-001</leafValues></_>
        <_>
          <internalNodes>
            0 -1 53 4.6584435040131211e-004</internalNodes>
          <leafValues>
            -3.3434441685676575e-001 5.6260067224502563e-001</leafValues></_></weakClassifiers></_>
    <!-- stage 12 -->
    <_>
      <maxWeakCount>6</maxWeakCount>
      <stageThreshold>-7.9483431577682495e-001</stageThreshold>
      <weakClassifiers>
        <_>
          <internalNodes>
            0 -1 85 1.3550117146223783e-003</internalNodes>
          <leafValues>
            -6.3131314516067505e-001 1.1111111193895340e-001</leafValues></_>
        <_>
          <internalNodes>
            0 -1 17 1.3111007865518332e-003</internalNodes>
          <leafValues>
            -2.4111622571945190e-001 6.7470759153366089e-001</leafValues></_>
        <_>
          <internalNodes>
            0 -1 132 5.9619010426104069e-004</internalNodes>
          <leafValues>
            1.5544202923774719e-001 -8.9089250564575195e-001</leafValues></_>
        <_>
          <internalNodes>
            0 -1 46 -3.8002189248800278e-002</internalNodes>
          <leafValues>
            -8.0261433124542236e-001 1.9200789928436279e-001</leafValues></_>
        <_>
          <internalNodes>
            0 -1 29 -1.7569954798091203e-004</internalNodes>
          <leafValues>
            5.2302485704421997e-001 -2.9453873634338379e-001</leafValues></_>
        <_>
          <internalNodes>
            0 -1 127 -1.0063416557386518e-003</internalNodes>
          <leafValues>
            -6.1670905351638794e-001 2.0174248516559601e-001</leafValues></_></weakClassifiers></_>
    <!-- stage 13 -->
    <_>
      <maxWeakCount>8</maxWeakCount>
      <stageThreshold>-1.2550880908966064e+000</stageThreshold>
      <weakClassifiers>
        <_>
          <internalNodes>
            0 -1 5 -1.5486920019611716e-003</internalNodes>
          <leafValues>
            4.5454546809196472e-001 -5.6086957454681396e-001</leafValues></_>
        <_>
          <internalNodes>
            0 -1 0 4.7104571422096342e-005</internalNodes>
          <leafValues>
            1.6531506180763245e-001 -5.8342003822326660e-001</leafValues></_>
        <_>
          <internalNodes>
            0 -1 71 -7.7336132526397705e-002</internalNodes>
          <leafValues>
            -8.4486478567123413e-001 1.2673762440681458e-001</leafValues></_>
        <_>
          <internalNodes>
            0 -1 143 2.7330382727086544e-004</internalNodes>
          <leafValues>
            -2.0078741014003754e-001 6.2884730100631714e-001</leafValues></_>
        <_>
          <internalNodes>
            0 -1 7 8.8755355682224035e-004</internalNodes>
          <leafValues>
            2.9166510701179504e-001 -5.4918557405471802e-001</leafValues></_>
        <_>
          <internalNodes>
            0 -1 123 5.2984738431405276e-005</internalNodes>
          <leafValues>
            -3.0504769086837769e-001 5.3318393230438232e-001</leafValues></_>
        <_>
          <internalNodes>
            0 -1 115 -5.8701931266114116e-004</internalNodes>
          <leafValues>
            -6.8123430013656616e-001 1.9033971428871155e-001</leafValues></_>
        <_>
          <internalNodes>
            0 -1 44 -2.7624394744634628e-002</internalNodes>
          <leafValues>
            7.4270892143249512e-001 -2.1370579302310944e-001</leafValues></_></weakClassifiers></_>
    <!-- stage 14 -->
    <_>
      <maxWeakCount>9</maxWeakCount>
      <stageThreshold>-1.5224971771240234e+000</stageThreshold>
      <weakClassifiers>
        <_>
          <internalNodes>
            0 -1 103 1.7867151182144880e-003</internalNodes>
          <leafValues>
            -6.1927711963653564e-001 2.1348313987255096e-001</leafValues></_>
        <_>
          <internalNodes>
            0 -1 112 7.1010543033480644e-003</internalNodes>
          <leafValues>
            -3.3334890007972717e-001 4.2765116691589355e-001</leafValues></_>
        <_>
          <internalNodes>
            0 -1 94 -7.0634669100400060e-006</internalNodes>
          <leafValues>
            4.1711917519569397e-001 -3.2161074876785278e-001</leafValues></_>
        <_>
          <internalNodes>
            0 -1 92 -1.0870380356209353e-004</internalNodes>
          <leafValues>
            5.1368027925491333e-001 -2.6782697439193726e-001</leafValues></_>
        <_>
          <internalNodes>
            0 -1 51 -2.4746363051235676e-003</internalNodes>
          <leafValues>
            5.7818269729614258e-001 -2.1492104232311249e-001</leafValues></_>
        <_>
          <internalNodes>
            0 -1 113 -7.6579344749916345e-006</internalNodes>
          <leafValues>
            3.8246011734008789e-001 -3.8469931483268738e-001</leafValues></_>
        <_>
          <internalNodes>
            0 -1 14 1.0865297168493271e-002</internalNodes>
          <leafValues>
            -3.1099176406860352e-001 4.9898859858512878e-001</leafValues></_>
        <_>
          <internalNodes>
            0 -1 105 -1.0150624802918173e-005</internalNodes>
          <leafValues>
            4.9976339936256409e-001 -2.9877403378486633e-001</leafValues></_>
        <_>
          <internalNodes>
            0 -1 90 -3.3325359254376963e-006</internalNodes>
          <leafValues>
            4.2930325865745544e-001 -3.4202769398689270e-001</leafValues></_></weakClassifiers></_>
    <!-- stage 15 -->
    <_>
      <maxWeakCount>9</maxWeakCount>
      <stageThreshold>-9.8555350303649902e-001</stageThreshold>
      <weakClassifiers>
        <_>
          <internalNodes>
            0 -1 136 -5.9274467639625072e-004</internalNodes>
          <leafValues>
            7.5000000000000000e-001 -5.5508476495742798e-001</leafValues></_>
        <_>
          <internalNodes>
            0 -1 62 -2.7951295487582684e-004</internalNodes>
          <leafValues>
            4.0334597229957581e-001 -3.9618709683418274e-001</leafValues></_>
        <_>
          <internalNodes>
            0 -1 23 -7.7306190505623817e-003</internalNodes>
          <leafValues>
            -8.7213516235351563e-001 1.9112135469913483e-001</leafValues></_>
        <_>
          <internalNodes>
            0 -1 142 3.8559937820537016e-006</internalNodes>
          <leafValues>
            -3.4798339009284973e-001 4.0755376219749451e-001</leafValues></_>
        <_>
          <internalNodes>
            0 -1 22 1.7186641343869269e-004</internalNodes>
          <leafValues>
            2.1768750250339508e-001 -7.2589325904846191e-001</leafValues></_>
        <_>
          <internalNodes>
            0 -1 138 5.9334316756576300e-004</internalNodes>
          <leafValues>
            -2.7472826838493347e-001 6.0094350576400757e-001</leafValues></_>
        <_>
          <internalNodes>
            0 -1 68 -3.4290580078959465e-003</internalNodes>
          <leafValues>
            3.7959727644920349e-001 -4.6944880485534668e-001</leafValues></_>
        <_>
          <internalNodes>
            0 -1 25 3.8389748624467757e-006</internalNodes>
          <leafValues>
            -3.6443766951560974e-001 4.1286078095436096e-001</leafValues></_>
        <_>
          <internalNodes>
            0 -1 135 -2.8196576749905944e-004</internalNodes>
          <leafValues>
            5.2169388532638550e-001 -3.0728870630264282e-001</leafValues></_></weakClassifiers></_>
    <!-- stage 16 -->
    <_>
      <maxWeakCount>7</maxWeakCount>
      <stageThreshold>-1.2334247827529907e+000</stageThreshold>
      <weakClassifiers>
        <_>
          <internalNodes>
            0 -1 69 8.3861071616411209e-003</internalNodes>
          <leafValues>
            -6.6850829124450684e-001 2.8169013559818268e-002</leafValues></_>
        <_>
          <internalNodes>
            0 -1 108 1.3174055493436754e-004</internalNodes>
          <leafValues>
            -3.3505553007125854e-001 4.2696586251258850e-001</leafValues></_>
        <_>
          <internalNodes>
            0 -1 121 -7.7027920633554459e-004</internalNodes>
          <leafValues>
            -8.6354833841323853e-001 1.4637076854705811e-001</leafValues></_>
        <_>
          <internalNodes>
            0 -1 125 -1.0829996317625046e-001</internalNodes>
          <leafValues>
            -9.1094523668289185e-001 1.6056773066520691e-001</leafValues></_>
        <_>
          <internalNodes>
            0 -1 63 -9.6411667764186859e-003</internalNodes>
          <leafValues>
            5.2125567197799683e-001 -2.8829592466354370e-001</leafValues></_>
        <_>
          <internalNodes>
            0 -1 81 -3.5957652926299488e-006</internalNodes>
          <leafValues>
            4.0466260910034180e-001 -3.4928825497627258e-001</leafValues></_>
        <_>
          <internalNodes>
            0 -1 40 6.2669496401213109e-005</internalNodes>
          <leafValues>
            2.5123518705368042e-001 -6.5316611528396606e-001</leafValues></_></weakClassifiers></_>
    <!-- stage 17 -->
    <_>
      <maxWeakCount>7</maxWeakCount>
      <stageThreshold>-8.1119996309280396e-001</stageThreshold>
      <weakClassifiers>
        <_>
          <internalNodes>
            0 -1 107 1.0396134108304977e-002</internalNodes>
          <leafValues>
            -6.0829490423202515e-001 3.7142857909202576e-001</leafValues></_>
        <_>
          <internalNodes>
            0 -1 48 7.6263130176812410e-004</internalNodes>
          <leafValues>
            8.1463418900966644e-002 -9.7787910699844360e-001</leafValues></_>
        <_>
          <internalNodes>
            0 -1 39 1.3160274829715490e-004</internalNodes>
          <leafValues>
            -3.4968468546867371e-001 4.6945187449455261e-001</leafValues></_>
        <_>
          <internalNodes>
            0 -1 134 -2.4320326338056475e-004</internalNodes>
          <leafValues>
            4.9051678180694580e-001 -3.6933431029319763e-001</leafValues></_>
        <_>
          <internalNodes>
            0 -1 34 -1.8443608283996582e-001</internalNodes>
          <leafValues>
            7.5644773244857788e-001 -1.9733513891696930e-001</leafValues></_>
        <_>
          <internalNodes>
            0 -1 84 -6.3242432661354542e-003</internalNodes>
          <leafValues>
            -7.6276457309722900e-001 2.5467434525489807e-001</leafValues></_>
        <_>
          <internalNodes>
            0 -1 114 -2.5207775252056308e-005</internalNodes>
          <leafValues>
            5.1850450038909912e-001 -3.7816917896270752e-001</leafValues></_></weakClassifiers></_>
    <!-- stage 18 -->
    <_>
      <maxWeakCount>6</maxWeakCount>
      <stageThreshold>-1.3758474588394165e+000</stageThreshold>
      <weakClassifiers>
        <_>
          <internalNodes>
            0 -1 129 5.6426386436214671e-005</internalNodes>
          <leafValues>
            -6.9189190864562988e-001 1.3432836532592773e-001</leafValues></_>
        <_>
          <internalNodes>
            0 -1 21 -4.0674299001693726e-002</internalNodes>
          <leafValues>
            6.3260591030120850e-001 -3.3345246315002441e-001</leafValues></_>
        <_>
          <internalNodes>
            0 -1 26 -2.9861682560294867e-004</internalNodes>
          <leafValues>
            7.0606768131256104e-001 -2.1683959662914276e-001</leafValues></_>
        <_>
          <internalNodes>
            0 -1 128 1.1509950272738934e-003</internalNodes>
          <leafValues>
            3.5264626145362854e-001 -4.9462881684303284e-001</leafValues></_>
        <_>
          <internalNodes>
            0 -1 67 1.8500154837965965e-003</internalNodes>
          <leafValues>
            -3.1645306944847107e-001 5.1058447360992432e-001</leafValues></_>
        <_>
          <internalNodes>
            0 -1 28 1.5516954590566456e-004</internalNodes>
          <leafValues>
            -2.8864002227783203e-001 6.5525895357131958e-001</leafValues></_></weakClassifiers></_>
    <!-- stage 19 -->
    <_>
      <maxWeakCount>6</maxWeakCount>
      <stageThreshold>-1.1347572803497314e+000</stageThreshold>
      <weakClassifiers>
        <_>
          <internalNodes>
            0 -1 66 1.0387403890490532e-002</internalNodes>
          <leafValues>
            -6.3294118642807007e-001 3.9240506291389465e-001</leafValues></_>
        <_>
          <internalNodes>
            0 -1 111 -8.9185051620006561e-003</internalNodes>
          <leafValues>
            -8.0768018960952759e-001 1.5093713998794556e-001</leafValues></_>
        <_>
          <internalNodes>
            0 -1 101 -2.3384367523249239e-004</internalNodes>
          <leafValues>
            -5.4077333211898804e-001 2.9505738615989685e-001</leafValues></_>
        <_>
          <internalNodes>
            0 -1 89 2.4735737591981888e-002</internalNodes>
          <leafValues>
            -1.6330766677856445e-001 1.</leafValues></_>
        <_>
          <internalNodes>
            0 -1 65 8.7352021364495158e-004</internalNodes>
          <leafValues>
            2.9835930466651917e-001 -6.4730566740036011e-001</leafValues></_>
        <_>
          <internalNodes>
            0 -1 57 4.3349422514438629e-002</internalNodes>
          <leafValues>
            -2.4703153967857361e-001 8.2033020257949829e-001</leafValues></_></weakClassifiers></_></stages>
  <features>
    <_>
      <rects>
        <_>
          0 0 5 3 -1.</_>
        <_>
          0 1 5 1 3.</_></rects>
      <tilted>0</tilted></_>
    <_>
      <rects>
        <_>
          0 0 33 41 -1.</_>
        <_>
          11 0 11 41 3.</_></rects>
      <tilted>0</tilted></_>
    <_>
      <rects>
        <_>
          0 0 17 58 -1.</_>
        <_>
          0 29 17 29 2.</_></rects>
      <tilted>0</tilted></_>
    <_>
      <rects>
        <_>
          0 8 8 33 -1.</_>
        <_>
          4 8 4 33 2.</_></rects>
      <tilted>0</tilted></_>
    <_>
      <rects>
        <_>
          0 11 18 44 -1.</_>
        <_>
          0 11 9 22 2.</_>
        <_>
          9 33 9 22 2.</_></rects>
      <tilted>0</tilted></_>
    <_>
      <rects>
        <_>
          0 16 3 16 -1.</_>
        <_>
          1 16 1 16 3.</_></rects>
      <tilted>0</tilted></_>
    <_>
      <rects>
        <_>
          0 20 14 3 -1.</_>
        <_>
          7 20 7 3 2.</_></rects>
      <tilted>0</tilted></_>
    <_>
      <rects>
        <_>
          0 21 4 6 -1.</_>
        <_>
          0 24 4 3 2.</_></rects>
      <tilted>0</tilted></_>
    <_>
      <rects>
        <_>
          0 23 20 36 -1.</_>
        <_>
          0 23 10 18 2.</_>
        <_>
          10 41 10 18 2.</_></rects>
      <tilted>0</tilted></_>
    <_>
      <rects>
        <_>
          0 36 20 16 -1.</_>
        <_>
          0 44 20 8 2.</_></rects>
      <tilted>0</tilted></_>
    <_>
      <rects>
        <_>
          0 45 32 10 -1.</_>
        <_>
          0 50 32 5 2.</_></rects>
      <tilted>0</tilted></_>
    <_>
      <rects>
        <_>
          0 48 28 12 -1.</_>
        <_>
          0 48 14 6 2.</_>
        <_>
          14 54 14 6 2.</_></rects>
      <tilted>0</tilted></_>
    <_>
      <rects>
        <_>
          0 53 4 6 -1.</_>
        <_>
          0 56 4 3 2.</_></rects>
      <tilted>0</tilted></_>
    <_>
      <rects>
        <_>
          0 57 3 3 -1.</_>
        <_>
          0 58 3 1 3.</_></rects>
      <tilted>0</tilted></_>
    <_>
      <rects>
        <_>
          1 0 27 10 -1.</_>
        <_>
          1 5 27 5 2.</_></rects>
      <tilted>0</tilted></_>
    <_>
      <rects>
        <_>
          1 2 2 48 -1.</_>
        <_>
          2 2 1 48 2.</_></rects>
      <tilted>0</tilted></_>
    <_>
      <rects>
        <_>
          1 8 6 52 -1.</_>
        <_>
          1 34 6 26 2.</_></rects>
      <tilted>0</tilted></_>
    <_>
      <rects>
        <_>
          1 22 3 34 -1.</_>
        <_>
          2 22 1 34 3.</_></rects>
      <tilted>0</tilted></_>
    <_>
      <rects>
        <_>
          1 36 30 16 -1.</_>
        <_>
          1 36 15 8 2.</_>
        <_>
          16 44 15 8 2.</_></rects>
      <tilted>0</tilted></_>
    <_>
      <rects>
        <_>
          1 43 3 5 -1.</_>
        <_>
          2 43 1 5 3.</_></rects>
      <tilted>0</tilted></_>
    <_>
      <rects>
        <_>
          1 50 20 10 -1.</_>
        <_>
          1 50 10 5 2.</_>
        <_>
          11 55 10 5 2.</_></rects>
      <tilted>0</tilted></_>
    <_>
      <rects>
        <_>
          1 53 39 6 -1.</_>
        <_>
          14 53 13 6 3.</_></rects>
      <tilted>0</tilted></_>
    <_>
      <rects>
        <_>
          1 57 5 3 -1.</_>
        <_>
          1 58 5 1 3.</_></rects>
      <tilted>0</tilted></_>
    <_>
      <rects>
        <_>
          2 0 4 53 -1.</_>
        <_>
          4 0 2 53 2.</_></rects>
      <tilted>0</tilted></_>
    <_>
      <rects>
        <_>
          2 2 3 30 -1.</_>
        <_>
          3 2 1 30 3.</_></rects>
      <tilted>0</tilted></_>
    <_>
      <rects>
        <_>
          2 9 2 4 -1.</_>
        <_>
          2 9 1 2 2.</_>
        <_>
          3 11 1 2 2.</_></rects>
      <tilted>0</tilted></_>
    <_>
      <rects>
        <_>
          2 9 4 6 -1.</_>
        <_>
          2 9 2 3 2.</_>
        <_>
          4 12 2 3 2.</_></rects>
      <tilted>0</tilted></_>
    <_>
      <rects>
        <_>
          2 15 3 23 -1.</_>
        <_>
          3 15 1 23 3.</_></rects>
      <tilted>0</tilted></_>
    <_>
      <rects>
        <_>
          2 22 3 10 -1.</_>
        <_>
          3 22 1 10 3.</_></rects>
      <tilted>0</tilted></_>
    <_>
      <rects>
        <_>
          2 45 3 6 -1.</_>
        <_>
          3 45 1 6 3.</_></rects>
      <tilted>0</tilted></_>
    <_>
      <rects>
        <_>
          3 0 26 36 -1.</_>
        <_>
          3 12 26 12 3.</_></rects>
      <tilted>0</tilted></_>
    <_>
      <rects>
        <_>
          3 2 23 22 -1.</_>
        <_>
          3 13 23 11 2.</_></rects>
      <tilted>0</tilted></_>
    <_>
      <rects>
        <_>
          3 40 3 8 -1.</_>
        <_>
          4 40 1 8 3.</_></rects>
      <tilted>0</tilted></_>
    <_>
      <rects>
        <_>
          4 7 3 44 -1.</_>
        <_>
          5 7 1 44 3.</_></rects>
      <tilted>0</tilted></_>
    <_>
      <rects>
        <_>
          4 10 30 43 -1.</_>
        <_>
          19 10 15 43 2.</_></rects>
      <tilted>0</tilted></_>
    <_>
      <rects>
        <_>
          4 26 36 18 -1.</_>
        <_>
          4 32 36 6 3.</_></rects>
      <tilted>0</tilted></_>
    <_>
      <rects>
        <_>
          4 30 3 21 -1.</_>
        <_>
          5 30 1 21 3.</_></rects>
      <tilted>0</tilted></_>
    <_>
      <rects>
        <_>
          4 36 3 6 -1.</_>
        <_>
          5 36 1 6 3.</_></rects>
      <tilted>0</tilted></_>
    <_>
      <rects>
        <_>
          4 37 2 6 -1.</_>
        <_>
          4 37 1 3 2.</_>
        <_>
          5 40 1 3 2.</_></rects>
      <tilted>0</tilted></_>
    <_>
      <rects>
        <_>
          4 44 3 11 -1.</_>
        <_>
          5 44 1 11 3.</_></rects>
      <tilted>0</tilted></_>
    <_>
      <rects>
        <_>
          4 54 3 2 -1.</_>
        <_>
          4 55 3 1 2.</_></rects>
      <tilted>0</tilted></_>
    <_>
      <rects>
        <_>
          4 58 25 2 -1.</_>
        <_>
          4 59 25 1 2.</_></rects>
      <tilted>0</tilted></_>
    <_>
      <rects>
        <_>
          5 0 21 18 -1.</_>
        <_>
          5 9 21 9 2.</_></rects>
      <tilted>0</tilted></_>
    <_>
      <rects>
        <_>
          5 41 3 9 -1.</_>
        <_>
          6 41 1 9 3.</_></rects>
      <tilted>0</tilted></_>
    <_>
      <rects>
        <_>
          6 1 10 33 -1.</_>
        <_>
          6 12 10 11 3.</_></rects>
      <tilted>0</tilted></_>
    <_>
      <rects>
        <_>
          6 33 32 10 -1.</_>
        <_>
          6 38 32 5 2.</_></rects>
      <tilted>0</tilted></_>
    <_>
      <rects>
        <_>
          6 36 24 10 -1.</_>
        <_>
          18 36 12 10 2.</_></rects>
      <tilted>0</tilted></_>
    <_>
      <rects>
        <_>
          6 37 3 9 -1.</_>
        <_>
          7 37 1 9 3.</_></rects>
      <tilted>0</tilted></_>
    <_>
      <rects>
        <_>
          7 0 13 3 -1.</_>
        <_>
          7 1 13 1 3.</_></rects>
      <tilted>0</tilted></_>
    <_>
      <rects>
        <_>
          7 0 15 30 -1.</_>
        <_>
          7 10 15 10 3.</_></rects>
      <tilted>0</tilted></_>
    <_>
      <rects>
        <_>
          7 19 10 39 -1.</_>
        <_>
          7 32 10 13 3.</_></rects>
      <tilted>0</tilted></_>
    <_>
      <rects>
        <_>
          7 30 4 16 -1.</_>
        <_>
          7 30 2 8 2.</_>
        <_>
          9 38 2 8 2.</_></rects>
      <tilted>0</tilted></_>
    <_>
      <rects>
        <_>
          7 33 2 6 -1.</_>
        <_>
          7 33 1 3 2.</_>
        <_>
          8 36 1 3 2.</_></rects>
      <tilted>0</tilted></_>
    <_>
      <rects>
        <_>
          7 34 3 13 -1.</_>
        <_>
          8 34 1 13 3.</_></rects>
      <tilted>0</tilted></_>
    <_>
      <rects>
        <_>
          7 39 16 9 -1.</_>
        <_>
          15 39 8 9 2.</_></rects>
      <tilted>0</tilted></_>
    <_>
      <rects>
        <_>
          8 4 18 24 -1.</_>
        <_>
          8 12 18 8 3.</_></rects>
      <tilted>0</tilted></_>
    <_>
      <rects>
        <_>
          8 5 30 31 -1.</_>
        <_>
          23 5 15 31 2.</_></rects>
      <tilted>0</tilted></_>
    <_>
      <rects>
        <_>
          8 13 18 18 -1.</_>
        <_>
          8 19 18 6 3.</_></rects>
      <tilted>0</tilted></_>
    <_>
      <rects>
        <_>
          8 28 8 18 -1.</_>
        <_>
          8 34 8 6 3.</_></rects>
      <tilted>0</tilted></_>
    <_>
      <rects>
        <_>
          8 47 27 11 -1.</_>
        <_>
          17 47 9 11 3.</_></rects>
      <tilted>0</tilted></_>
    <_>
      <rects>
        <_>
          8 57 20 3 -1.</_>
        <_>
          18 57 10 3 2.</_></rects>
      <tilted>0</tilted></_>
    <_>
      <rects>
        <_>
          9 26 4 21 -1.</_>
        <_>
          9 33 4 7 3.</_></rects>
      <tilted>0</tilted></_>
    <_>
      <rects>
        <_>
          9 41 3 19 -1.</_>
        <_>
          10 41 1 19 3.</_></rects>
      <tilted>0</tilted></_>
    <_>
      <rects>
        <_>
          9 41 12 16 -1.</_>
        <_>
          9 49 12 8 2.</_></rects>
      <tilted>0</tilted></_>
    <_>
      <rects>
        <_>
          10 4 20 33 -1.</_>
        <_>
          10 15 20 11 3.</_></rects>
      <tilted>0</tilted></_>
    <_>
      <rects>
        <_>
          10 22 22 2 -1.</_>
        <_>
          10 22 11 1 2.</_>
        <_>
          21 23 11 1 2.</_></rects>
      <tilted>0</tilted></_>
    <_>
      <rects>
        <_>
          10 30 12 15 -1.</_>
        <_>
          10 35 12 5 3.</_></rects>
      <tilted>0</tilted></_>
    <_>
      <rects>
        <_>
          10 44 4 12 -1.</_>
        <_>
          10 48 4 4 3.</_></rects>
      <tilted>0</tilted></_>
    <_>
      <rects>
        <_>
          10 47 24 11 -1.</_>
        <_>
          22 47 12 11 2.</_></rects>
      <tilted>0</tilted></_>
    <_>
      <rects>
        <_>
          11 20 26 10 -1.</_>
        <_>
          11 20 13 5 2.</_>
        <_>
          24 25 13 5 2.</_></rects>
      <tilted>0</tilted></_>
    <_>
      <rects>
        <_>
          11 21 19 12 -1.</_>
        <_>
          11 27 19 6 2.</_></rects>
      <tilted>0</tilted></_>
    <_>
      <rects>
        <_>
          11 26 22 26 -1.</_>
        <_>
          11 39 22 13 2.</_></rects>
      <tilted>0</tilted></_>
    <_>
      <rects>
        <_>
          11 33 2 2 -1.</_>
        <_>
          11 33 1 1 2.</_>
        <_>
          12 34 1 1 2.</_></rects>
      <tilted>0</tilted></_>
    <_>
      <rects>
        <_>
          12 9 9 16 -1.</_>
        <_>
          12 17 9 8 2.</_></rects>
      <tilted>0</tilted></_>
    <_>
      <rects>
        <_>
          12 13 28 28 -1.</_>
        <_>
          12 13 14 14 2.</_>
        <_>
          26 27 14 14 2.</_></rects>
      <tilted>0</tilted></_>
    <_>
      <rects>
        <_>
          12 39 3 21 -1.</_>
        <_>
          13 39 1 21 3.</_></rects>
      <tilted>0</tilted></_>
    <_>
      <rects>
        <_>
          13 0 4 4 -1.</_>
        <_>
          13 0 2 2 2.</_>
        <_>
          15 2 2 2 2.</_></rects>
      <tilted>0</tilted></_>
    <_>
      <rects>
        <_>
          13 5 23 3 -1.</_>
        <_>
          13 6 23 1 3.</_></rects>
      <tilted>0</tilted></_>
    <_>
      <rects>
        <_>
          13 16 1 2 -1.</_>
        <_>
          13 17 1 1 2.</_></rects>
      <tilted>0</tilted></_>
    <_>
      <rects>
        <_>
          13 28 4 8 -1.</_>
        <_>
          13 32 4 4 2.</_></rects>
      <tilted>0</tilted></_>
    <_>
      <rects>
        <_>
          14 9 24 26 -1.</_>
        <_>
          26 9 12 26 2.</_></rects>
      <tilted>0</tilted></_>
    <_>
      <rects>
        <_>
          14 16 1 2 -1.</_>
        <_>
          14 17 1 1 2.</_></rects>
      <tilted>0</tilted></_>
    <_>
      <rects>
        <_>
          14 16 26 18 -1.</_>
        <_>
          14 16 13 9 2.</_>
        <_>
          27 25 13 9 2.</_></rects>
      <tilted>0</tilted></_>
    <_>
      <rects>
        <_>
          14 40 3 3 -1.</_>
        <_>
          14 41 3 1 3.</_></rects>
      <tilted>0</tilted></_>
    <_>
      <rects>
        <_>
          14 49 9 8 -1.</_>
        <_>
          17 49 3 8 3.</_></rects>
      <tilted>0</tilted></_>
    <_>
      <rects>
        <_>
          14 50 7 6 -1.</_>
        <_>
          14 52 7 2 3.</_></rects>
      <tilted>0</tilted></_>
    <_>
      <rects>
        <_>
          14 54 14 6 -1.</_>
        <_>
          14 56 14 2 3.</_></rects>
      <tilted>0</tilted></_>
    <_>
      <rects>
        <_>
          15 14 3 10 -1.</_>
        <_>
          15 19 3 5 2.</_></rects>
      <tilted>0</tilted></_>
    <_>
      <rects>
        <_>
          15 22 10 27 -1.</_>
        <_>
          20 22 5 27 2.</_></rects>
      <tilted>0</tilted></_>
    <_>
      <rects>
        <_>
          15 23 18 12 -1.</_>
        <_>
          15 27 18 4 3.</_></rects>
      <tilted>0</tilted></_>
    <_>
      <rects>
        <_>
          15 35 2 2 -1.</_>
        <_>
          15 35 1 1 2.</_>
        <_>
          16 36 1 1 2.</_></rects>
      <tilted>0</tilted></_>
    <_>
      <rects>
        <_>
          15 38 24 3 -1.</_>
        <_>
          15 39 24 1 3.</_></rects>
      <tilted>0</tilted></_>
    <_>
      <rects>
        <_>
          16 9 3 8 -1.</_>
        <_>
          17 9 1 8 3.</_></rects>
      <tilted>0</tilted></_>
    <_>
      <rects>
        <_>
          16 20 3 17 -1.</_>
        <_>
          17 20 1 17 3.</_></rects>
      <tilted>0</tilted></_>
    <_>
      <rects>
        <_>
          16 41 2 2 -1.</_>
        <_>
          16 41 1 1 2.</_>
        <_>
          17 42 1 1 2.</_></rects>
      <tilted>0</tilted></_>
    <_>
      <rects>
        <_>
          17 1 20 40 -1.</_>
        <_>
          27 1 10 40 2.</_></rects>
      <tilted>0</tilted></_>
    <_>
      <rects>
        <_>
          17 38 1 12 -1.</_>
        <_>
          17 42 1 4 3.</_></rects>
      <tilted>0</tilted></_>
    <_>
      <rects>
        <_>
          17 56 11 4 -1.</_>
        <_>
          17 58 11 2 2.</_></rects>
      <tilted>0</tilted></_>
    <_>
      <rects>
        <_>
          18 21 20 3 -1.</_>
        <_>
          28 21 10 3 2.</_></rects>
      <tilted>0</tilted></_>
    <_>
      <rects>
        <_>
          18 24 16 14 -1.</_>
        <_>
          18 31 16 7 2.</_></rects>
      <tilted>0</tilted></_>
    <_>
      <rects>
        <_>
          18 39 3 8 -1.</_>
        <_>
          19 39 1 8 3.</_></rects>
      <tilted>0</tilted></_>
    <_>
      <rects>
        <_>
          18 48 4 2 -1.</_>
        <_>
          20 48 2 2 2.</_></rects>
      <tilted>0</tilted></_>
    <_>
      <rects>
        <_>
          18 52 11 3 -1.</_>
        <_>
          18 53 11 1 3.</_></rects>
      <tilted>0</tilted></_>
    <_>
      <rects>
        <_>
          19 35 6 8 -1.</_>
        <_>
          19 35 3 4 2.</_>
        <_>
          22 39 3 4 2.</_></rects>
      <tilted>0</tilted></_>
    <_>
      <rects>
        <_>
          19 52 3 2 -1.</_>
        <_>
          20 52 1 2 3.</_></rects>
      <tilted>0</tilted></_>
    <_>
      <rects>
        <_>
          20 2 1 4 -1.</_>
        <_>
          20 4 1 2 2.</_></rects>
      <tilted>0</tilted></_>
    <_>
      <rects>
        <_>
          20 4 10 32 -1.</_>
        <_>
          25 4 5 32 2.</_></rects>
      <tilted>0</tilted></_>
    <_>
      <rects>
        <_>
          20 33 10 12 -1.</_>
        <_>
          20 37 10 4 3.</_></rects>
      <tilted>0</tilted></_>
    <_>
      <rects>
        <_>
          21 38 2 6 -1.</_>
        <_>
          21 38 1 3 2.</_>
        <_>
          22 41 1 3 2.</_></rects>
      <tilted>0</tilted></_>
    <_>
      <rects>
        <_>
          21 43 3 4 -1.</_>
        <_>
          22 43 1 4 3.</_></rects>
      <tilted>0</tilted></_>
    <_>
      <rects>
        <_>
          22 7 18 33 -1.</_>
        <_>
          31 7 9 33 2.</_></rects>
      <tilted>0</tilted></_>
    <_>
      <rects>
        <_>
          22 12 1 45 -1.</_>
        <_>
          22 27 1 15 3.</_></rects>
      <tilted>0</tilted></_>
    <_>
      <rects>
        <_>
          22 15 16 12 -1.</_>
        <_>
          22 15 8 6 2.</_>
        <_>
          30 21 8 6 2.</_></rects>
      <tilted>0</tilted></_>
    <_>
      <rects>
        <_>
          22 23 2 1 -1.</_>
        <_>
          23 23 1 1 2.</_></rects>
      <tilted>0</tilted></_>
    <_>
      <rects>
        <_>
          22 25 1 3 -1.</_>
        <_>
          22 26 1 1 3.</_></rects>
      <tilted>0</tilted></_>
    <_>
      <rects>
        <_>
          22 43 8 2 -1.</_>
        <_>
          22 44 8 1 2.</_></rects>
      <tilted>0</tilted></_>
    <_>
      <rects>
        <_>
          23 36 16 20 -1.</_>
        <_>
          23 36 8 10 2.</_>
        <_>
          31 46 8 10 2.</_></rects>
      <tilted>0</tilted></_>
    <_>
      <rects>
        <_>
          23 37 17 21 -1.</_>
        <_>
          23 44 17 7 3.</_></rects>
      <tilted>0</tilted></_>
    <_>
      <rects>
        <_>
          23 45 4 2 -1.</_>
        <_>
          23 45 2 1 2.</_>
        <_>
          25 46 2 1 2.</_></rects>
      <tilted>0</tilted></_>
    <_>
      <rects>
        <_>
          24 0 12 31 -1.</_>
        <_>
          30 0 6 31 2.</_></rects>
      <tilted>0</tilted></_>
    <_>
      <rects>
        <_>
          24 25 15 5 -1.</_>
        <_>
          29 25 5 5 3.</_></rects>
      <tilted>0</tilted></_>
    <_>
      <rects>
        <_>
          25 21 12 2 -1.</_>
        <_>
          25 22 12 1 2.</_></rects>
      <tilted>0</tilted></_>
    <_>
      <rects>
        <_>
          25 40 7 3 -1.</_>
        <_>
          25 41 7 1 3.</_></rects>
      <tilted>0</tilted></_>
    <_>
      <rects>
        <_>
          25 50 3 2 -1.</_>
        <_>
          26 50 1 2 3.</_></rects>
      <tilted>0</tilted></_>
    <_>
      <rects>
        <_>
          26 36 13 24 -1.</_>
        <_>
          26 44 13 8 3.</_></rects>
      <tilted>0</tilted></_>
    <_>
      <rects>
        <_>
          28 5 12 45 -1.</_>
        <_>
          28 20 12 15 3.</_></rects>
      <tilted>0</tilted></_>
    <_>
      <rects>
        <_>
          28 9 12 6 -1.</_>
        <_>
          32 9 4 6 3.</_></rects>
      <tilted>0</tilted></_>
    <_>
      <rects>
        <_>
          28 14 6 8 -1.</_>
        <_>
          30 14 2 8 3.</_></rects>
      <tilted>0</tilted></_>
    <_>
      <rects>
        <_>
          28 22 8 26 -1.</_>
        <_>
          32 22 4 26 2.</_></rects>
      <tilted>0</tilted></_>
    <_>
      <rects>
        <_>
          28 42 6 1 -1.</_>
        <_>
          30 42 2 1 3.</_></rects>
      <tilted>0</tilted></_>
    <_>
      <rects>
        <_>
          29 13 10 3 -1.</_>
        <_>
          29 14 10 1 3.</_></rects>
      <tilted>0</tilted></_>
    <_>
      <rects>
        <_>
          29 18 11 6 -1.</_>
        <_>
          29 21 11 3 2.</_></rects>
      <tilted>0</tilted></_>
    <_>
      <rects>
        <_>
          30 20 7 2 -1.</_>
        <_>
          30 21 7 1 2.</_></rects>
      <tilted>0</tilted></_>
    <_>
      <rects>
        <_>
          31 13 3 26 -1.</_>
        <_>
          32 13 1 26 3.</_></rects>
      <tilted>0</tilted></_>
    <_>
      <rects>
        <_>
          31 34 2 9 -1.</_>
        <_>
          32 34 1 9 2.</_></rects>
      <tilted>0</tilted></_>
    <_>
      <rects>
        <_>
          31 48 6 3 -1.</_>
        <_>
          33 48 2 3 3.</_></rects>
      <tilted>0</tilted></_>
    <_>
      <rects>
        <_>
          31 53 3 5 -1.</_>
        <_>
          32 53 1 5 3.</_></rects>
      <tilted>0</tilted></_>
    <_>
      <rects>
        <_>
          31 55 9 3 -1.</_>
        <_>
          31 56 9 1 3.</_></rects>
      <tilted>0</tilted></_>
    <_>
      <rects>
        <_>
          32 6 3 48 -1.</_>
        <_>
          33 6 1 48 3.</_></rects>
      <tilted>0</tilted></_>
    <_>
      <rects>
        <_>
          32 27 8 21 -1.</_>
        <_>
          32 34 8 7 3.</_></rects>
      <tilted>0</tilted></_>
    <_>
      <rects>
        <_>
          35 39 4 15 -1.</_>
        <_>
          37 39 2 15 2.</_></rects>
      <tilted>0</tilted></_>
    <_>
      <rects>
        <_>
          35 50 3 3 -1.</_>
        <_>
          35 51 3 1 3.</_></rects>
      <tilted>0</tilted></_>
    <_>
      <rects>
        <_>
          35 54 2 1 -1.</_>
        <_>
          36 54 1 1 2.</_></rects>
      <tilted>0</tilted></_>
    <_>
      <rects>
        <_>
          36 53 3 6 -1.</_>
        <_>
          37 53 1 6 3.</_></rects>
      <tilted>0</tilted></_>
    <_>
      <rects>
        <_>
          37 38 3 18 -1.</_>
        <_>
          38 38 1 18 3.</_></rects>
      <tilted>0</tilted></_>
    <_>
      <rects>
        <_>
          38 2 2 27 -1.</_>
        <_>
          39 2 1 27 2.</_></rects>
      <tilted>0</tilted></_>
    <_>
      <rects>
        <_>
          38 9 2 8 -1.</_>
        <_>
          38 13 2 4 2.</_></rects>
      <tilted>0</tilted></_></features></cascade>
</opencv_storage>
